digraph Tree {
node [shape=box] ;
0 [label="X[2] <= 3.853\ngini = 0.667\nsamples = 149\nvalue = [49, 50, 50]"] ;
1 [label="X[2] <= 2.074\ngini = 0.241\nsamples = 57\nvalue = [49, 8, 0]"] ;
0 -> 1 [labeldistance=2.5, labelangle=45, headlabel="True"] ;
2 [label="gini = 0.0\nsamples = 49\nvalue = [49, 0, 0]"] ;
1 -> 2 ;
3 [label="gini = 0.0\nsamples = 8\nvalue = [0, 8, 0]"] ;
1 -> 3 ;
4 [label="X[2] <= 4.806\ngini = 0.496\nsamples = 92\nvalue = [0, 42, 50]"] ;
0 -> 4 [labeldistance=2.5, labelangle=-45, headlabel="False"] ;
5 [label="X[3] <= 1.568\ngini = 0.136\nsamples = 41\nvalue = [0, 38, 3]"] ;
4 -> 5 ;
6 [label="gini = 0.0\nsamples = 35\nvalue = [0, 35, 0]"] ;
5 -> 6 ;
7 [label="X[3] <= 1.63\ngini = 0.5\nsamples = 6\nvalue = [0, 3, 3]"] ;
5 -> 7 ;
8 [label="gini = 0.0\nsamples = 2\nvalue = [0, 2, 0]"] ;
7 -> 8 ;
9 [label="X[1] <= 3.046\ngini = 0.375\nsamples = 4\nvalue = [0, 1, 3]"] ;
7 -> 9 ;
10 [label="gini = 0.0\nsamples = 3\nvalue = [0, 0, 3]"] ;
9 -> 10 ;
11 [label="gini = 0.0\nsamples = 1\nvalue = [0, 1, 0]"] ;
9 -> 11 ;
12 [label="X[3] <= 1.688\ngini = 0.145\nsamples = 51\nvalue = [0, 4, 47]"] ;
4 -> 12 ;
13 [label="X[2] <= 5.78\ngini = 0.49\nsamples = 7\nvalue = [0, 3, 4]"] ;
12 -> 13 ;
14 [label="X[0] <= 6.387\ngini = 0.5\nsamples = 6\nvalue = [0, 3, 3]"] ;
13 -> 14 ;
15 [label="gini = 0.48\nsamples = 5\nvalue = [0, 2, 3]"] ;
14 -> 15 ;
16 [label="gini = 0.0\nsamples = 1\nvalue = [0, 1, 0]"] ;
14 -> 16 ;
17 [label="gini = 0.0\nsamples = 1\nvalue = [0, 0, 1]"] ;
13 -> 17 ;
18 [label="X[2] <= 5.393\ngini = 0.044\nsamples = 44\nvalue = [0, 1, 43]"] ;
12 -> 18 ;
19 [label="X[3] <= 2.039\ngini = 0.117\nsamples = 16\nvalue = [0, 1, 15]"] ;
18 -> 19 ;
20 [label="gini = 0.153\nsamples = 12\nvalue = [0, 1, 11]"] ;
19 -> 20 ;
21 [label="gini = 0.0\nsamples = 4\nvalue = [0, 0, 4]"] ;
19 -> 21 ;
22 [label="gini = 0.0\nsamples = 28\nvalue = [0, 0, 28]"] ;
18 -> 22 ;
}